tree
version=v2
num_class=1
num_tree_per_iteration=1
label_index=0
max_feature_idx=791
objective=regression
feature_names=claim_created creation_delta claim_level claim_relation EMB_0 EMB_1 EMB_2 EMB_3 EMB_4 EMB_5 EMB_6 EMB_7 EMB_8 EMB_9 EMB_10 EMB_11 EMB_12 EMB_13 EMB_14 EMB_15 EMB_16 EMB_17 EMB_18 EMB_19 EMB_20 EMB_21 EMB_22 EMB_23 EMB_24 EMB_25 EMB_26 EMB_27 EMB_28 EMB_29 EMB_30 EMB_31 EMB_32 EMB_33 EMB_34 EMB_35 EMB_36 EMB_37 EMB_38 EMB_39 EMB_40 EMB_41 EMB_42 EMB_43 EMB_44 EMB_45 EMB_46 EMB_47 EMB_48 EMB_49 EMB_50 EMB_51 EMB_52 EMB_53 EMB_54 EMB_55 EMB_56 EMB_57 EMB_58 EMB_59 EMB_60 EMB_61 EMB_62 EMB_63 EMB_64 EMB_65 EMB_66 EMB_67 EMB_68 EMB_69 EMB_70 EMB_71 EMB_72 EMB_73 EMB_74 EMB_75 EMB_76 EMB_77 EMB_78 EMB_79 EMB_80 EMB_81 EMB_82 EMB_83 EMB_84 EMB_85 EMB_86 EMB_87 EMB_88 EMB_89 EMB_90 EMB_91 EMB_92 EMB_93 EMB_94 EMB_95 EMB_96 EMB_97 EMB_98 EMB_99 EMB_100 EMB_101 EMB_102 EMB_103 EMB_104 EMB_105 EMB_106 EMB_107 EMB_108 EMB_109 EMB_110 EMB_111 EMB_112 EMB_113 EMB_114 EMB_115 EMB_116 EMB_117 EMB_118 EMB_119 EMB_120 EMB_121 EMB_122 EMB_123 EMB_124 EMB_125 EMB_126 EMB_127 EMB_128 EMB_129 EMB_130 EMB_131 EMB_132 EMB_133 EMB_134 EMB_135 EMB_136 EMB_137 EMB_138 EMB_139 EMB_140 EMB_141 EMB_142 EMB_143 EMB_144 EMB_145 EMB_146 EMB_147 EMB_148 EMB_149 EMB_150 EMB_151 EMB_152 EMB_153 EMB_154 EMB_155 EMB_156 EMB_157 EMB_158 EMB_159 EMB_160 EMB_161 EMB_162 EMB_163 EMB_164 EMB_165 EMB_166 EMB_167 EMB_168 EMB_169 EMB_170 EMB_171 EMB_172 EMB_173 EMB_174 EMB_175 EMB_176 EMB_177 EMB_178 EMB_179 EMB_180 EMB_181 EMB_182 EMB_183 EMB_184 EMB_185 EMB_186 EMB_187 EMB_188 EMB_189 EMB_190 EMB_191 EMB_192 EMB_193 EMB_194 EMB_195 EMB_196 EMB_197 EMB_198 EMB_199 EMB_200 EMB_201 EMB_202 EMB_203 EMB_204 EMB_205 EMB_206 EMB_207 EMB_208 EMB_209 EMB_210 EMB_211 EMB_212 EMB_213 EMB_214 EMB_215 EMB_216 EMB_217 EMB_218 EMB_219 EMB_220 EMB_221 EMB_222 EMB_223 EMB_224 EMB_225 EMB_226 EMB_227 EMB_228 EMB_229 EMB_230 EMB_231 EMB_232 EMB_233 EMB_234 EMB_235 EMB_236 EMB_237 EMB_238 EMB_239 EMB_240 EMB_241 EMB_242 EMB_243 EMB_244 EMB_245 EMB_246 EMB_247 EMB_248 EMB_249 EMB_250 EMB_251 EMB_252 EMB_253 EMB_254 EMB_255 EMB_256 EMB_257 EMB_258 EMB_259 EMB_260 EMB_261 EMB_262 EMB_263 EMB_264 EMB_265 EMB_266 EMB_267 EMB_268 EMB_269 EMB_270 EMB_271 EMB_272 EMB_273 EMB_274 EMB_275 EMB_276 EMB_277 EMB_278 EMB_279 EMB_280 EMB_281 EMB_282 EMB_283 EMB_284 EMB_285 EMB_286 EMB_287 EMB_288 EMB_289 EMB_290 EMB_291 EMB_292 EMB_293 EMB_294 EMB_295 EMB_296 EMB_297 EMB_298 EMB_299 EMB_300 EMB_301 EMB_302 EMB_303 EMB_304 EMB_305 EMB_306 EMB_307 EMB_308 EMB_309 EMB_310 EMB_311 EMB_312 EMB_313 EMB_314 EMB_315 EMB_316 EMB_317 EMB_318 EMB_319 EMB_320 EMB_321 EMB_322 EMB_323 EMB_324 EMB_325 EMB_326 EMB_327 EMB_328 EMB_329 EMB_330 EMB_331 EMB_332 EMB_333 EMB_334 EMB_335 EMB_336 EMB_337 EMB_338 EMB_339 EMB_340 EMB_341 EMB_342 EMB_343 EMB_344 EMB_345 EMB_346 EMB_347 EMB_348 EMB_349 EMB_350 EMB_351 EMB_352 EMB_353 EMB_354 EMB_355 EMB_356 EMB_357 EMB_358 EMB_359 EMB_360 EMB_361 EMB_362 EMB_363 EMB_364 EMB_365 EMB_366 EMB_367 EMB_368 EMB_369 EMB_370 EMB_371 EMB_372 EMB_373 EMB_374 EMB_375 EMB_376 EMB_377 EMB_378 EMB_379 EMB_380 EMB_381 EMB_382 EMB_383 EMB_384 EMB_385 EMB_386 EMB_387 EMB_388 EMB_389 EMB_390 EMB_391 EMB_392 EMB_393 EMB_394 EMB_395 EMB_396 EMB_397 EMB_398 EMB_399 EMB_400 EMB_401 EMB_402 EMB_403 EMB_404 EMB_405 EMB_406 EMB_407 EMB_408 EMB_409 EMB_410 EMB_411 EMB_412 EMB_413 EMB_414 EMB_415 EMB_416 EMB_417 EMB_418 EMB_419 EMB_420 EMB_421 EMB_422 EMB_423 EMB_424 EMB_425 EMB_426 EMB_427 EMB_428 EMB_429 EMB_430 EMB_431 EMB_432 EMB_433 EMB_434 EMB_435 EMB_436 EMB_437 EMB_438 EMB_439 EMB_440 EMB_441 EMB_442 EMB_443 EMB_444 EMB_445 EMB_446 EMB_447 EMB_448 EMB_449 EMB_450 EMB_451 EMB_452 EMB_453 EMB_454 EMB_455 EMB_456 EMB_457 EMB_458 EMB_459 EMB_460 EMB_461 EMB_462 EMB_463 EMB_464 EMB_465 EMB_466 EMB_467 EMB_468 EMB_469 EMB_470 EMB_471 EMB_472 EMB_473 EMB_474 EMB_475 EMB_476 EMB_477 EMB_478 EMB_479 EMB_480 EMB_481 EMB_482 EMB_483 EMB_484 EMB_485 EMB_486 EMB_487 EMB_488 EMB_489 EMB_490 EMB_491 EMB_492 EMB_493 EMB_494 EMB_495 EMB_496 EMB_497 EMB_498 EMB_499 EMB_500 EMB_501 EMB_502 EMB_503 EMB_504 EMB_505 EMB_506 EMB_507 EMB_508 EMB_509 EMB_510 EMB_511 EMB_512 EMB_513 EMB_514 EMB_515 EMB_516 EMB_517 EMB_518 EMB_519 EMB_520 EMB_521 EMB_522 EMB_523 EMB_524 EMB_525 EMB_526 EMB_527 EMB_528 EMB_529 EMB_530 EMB_531 EMB_532 EMB_533 EMB_534 EMB_535 EMB_536 EMB_537 EMB_538 EMB_539 EMB_540 EMB_541 EMB_542 EMB_543 EMB_544 EMB_545 EMB_546 EMB_547 EMB_548 EMB_549 EMB_550 EMB_551 EMB_552 EMB_553 EMB_554 EMB_555 EMB_556 EMB_557 EMB_558 EMB_559 EMB_560 EMB_561 EMB_562 EMB_563 EMB_564 EMB_565 EMB_566 EMB_567 EMB_568 EMB_569 EMB_570 EMB_571 EMB_572 EMB_573 EMB_574 EMB_575 EMB_576 EMB_577 EMB_578 EMB_579 EMB_580 EMB_581 EMB_582 EMB_583 EMB_584 EMB_585 EMB_586 EMB_587 EMB_588 EMB_589 EMB_590 EMB_591 EMB_592 EMB_593 EMB_594 EMB_595 EMB_596 EMB_597 EMB_598 EMB_599 EMB_600 EMB_601 EMB_602 EMB_603 EMB_604 EMB_605 EMB_606 EMB_607 EMB_608 EMB_609 EMB_610 EMB_611 EMB_612 EMB_613 EMB_614 EMB_615 EMB_616 EMB_617 EMB_618 EMB_619 EMB_620 EMB_621 EMB_622 EMB_623 EMB_624 EMB_625 EMB_626 EMB_627 EMB_628 EMB_629 EMB_630 EMB_631 EMB_632 EMB_633 EMB_634 EMB_635 EMB_636 EMB_637 EMB_638 EMB_639 EMB_640 EMB_641 EMB_642 EMB_643 EMB_644 EMB_645 EMB_646 EMB_647 EMB_648 EMB_649 EMB_650 EMB_651 EMB_652 EMB_653 EMB_654 EMB_655 EMB_656 EMB_657 EMB_658 EMB_659 EMB_660 EMB_661 EMB_662 EMB_663 EMB_664 EMB_665 EMB_666 EMB_667 EMB_668 EMB_669 EMB_670 EMB_671 EMB_672 EMB_673 EMB_674 EMB_675 EMB_676 EMB_677 EMB_678 EMB_679 EMB_680 EMB_681 EMB_682 EMB_683 EMB_684 EMB_685 EMB_686 EMB_687 EMB_688 EMB_689 EMB_690 EMB_691 EMB_692 EMB_693 EMB_694 EMB_695 EMB_696 EMB_697 EMB_698 EMB_699 EMB_700 EMB_701 EMB_702 EMB_703 EMB_704 EMB_705 EMB_706 EMB_707 EMB_708 EMB_709 EMB_710 EMB_711 EMB_712 EMB_713 EMB_714 EMB_715 EMB_716 EMB_717 EMB_718 EMB_719 EMB_720 EMB_721 EMB_722 EMB_723 EMB_724 EMB_725 EMB_726 EMB_727 EMB_728 EMB_729 EMB_730 EMB_731 EMB_732 EMB_733 EMB_734 EMB_735 EMB_736 EMB_737 EMB_738 EMB_739 EMB_740 EMB_741 EMB_742 EMB_743 EMB_744 EMB_745 EMB_746 EMB_747 EMB_748 EMB_749 EMB_750 EMB_751 EMB_752 EMB_753 EMB_754 EMB_755 EMB_756 EMB_757 EMB_758 EMB_759 EMB_760 EMB_761 EMB_762 EMB_763 EMB_764 EMB_765 EMB_766 EMB_767 PCA_0 PCA_1 PCA_2 PCA_3 PCA_4 PCA_5 PCA_6 PCA_7 PCA_8 PCA_9 PCA_10 PCA_11 PCA_12 PCA_13 PCA_14 PCA_15 PCA_16 PCA_17 PCA_18 PCA_19
feature_infos=[1380181923011:1599932014308] [-110416323747:174060854008] [1:17] [-1:1] none none none none none none none none none none none none none none none none none none none none none [0:1] none none none none none none none none none none none none none none none none none none none none none none none none none none none none none none none none none none none none none none none none none none none none none none none none none none none none none none none [0:1] none none none none none none none [-1:0] none none none none none none none none none none none none none none none none none none none none none none none none none none none none none none none none none none none none none none none none none [-1:0] none none none none none none none none none none none none none none none none none none none none none none none none none none none none none none none none none none none none none none none none none none none none none none none none none none none none none none none none none none none none none none none none none none none none none none none none none none none none none none none none none none none none none none none none none none none none none none none none none none none none none none none none none none none none none none none none none none none none none none none none none none none none none none none none none none none none none none none none none none none none none none none none none none none none none none none none none none none none [0:1] none none none none none none none [-1:0] none none none [-1:0] none none none none none none [-1:0] none none none none none none none none none none none none none none none none none none none none none none none none none none none none none none none none none none none none none none none none none [0:1] none none none none none [0:1] none none none none none none none none none none none none none none none none none none none none none none none none none none none none none none none none none none none none none none none none [0:1] none none none none none none none none none none none none none none none none none none none none none none none none none none none none none none none none none none none none none none none [0:1] none none none none none none none none none none none none none none none none none none none none none none none none none none none none none none none none none none none none none none none none [0:1] none none none none none none none none none none none none none none none none none none none none none none none none none none none [0:1] none none none none none [0:1] none none none none none none none none none none none none none none none none none none none none none none none none none none none none none none none none none none none none none [0:1] none none none none none none none none none none none none none none none none none none none none none none none none none none none [-1:0] none [-1:0] none none none none none none none none none none none none none none none none none none none [0:1] none none none none none [0:1] none none none none none none none none none none none none none none none none none none none none none none none none none none [0:1] none none none none none none none none none none none none none none none none none none none none none none none none none none [-1:0] none none none none none none none none none none none none none none none none none none none none none none none none none none none none none none none none none none none none none none none none none none none none none none none none none none none none none none none none none none none none none none none none none none none none none none none none none none none none none none none none none none [0:1] none none none none none none [-1:0] none none none none none none none none none none none none none none none none none none none none none none [0:0.048460346549483745] [-0.050572478692090271:0.085900047510748229] [-0.048215014838769582:0.093679128373693965] [-0.11368975417652225:0.060188842888126107] [-0.073776533006056244:0.15555658636937536] [-0.033529689144986469:0.21835107460298242] [-0.070541994340421563:0.19762386157143891] [-0.085332468542137122:0.1051353101920158] [-0.19002425895120362:0.14973029745859615] [-0.12400496670127695:0.24027506448450661] [-0.32952787641832665:0.27493390070838042] [-0.062100117181807288:0.32211764182778285] [-0.14501650366665542:0.26508973400646907] [-0.42436483412837556:0.070301452513546137] [-0.067238818130270758:0.69294322736860325] [-0.70770645290659817:0.70531429085600716] [-0.30493906394244424:0.25761707487237012] [-0.59893338509639238:0.65446435706531669] [-0.51483375283410326:0.11548667286435778] [-0.35207953811275389:0.32424661269172]
tree_sizes=7717 7505 7895 7918 8111

Tree=0
num_leaves=88
num_cat=0
split_feature=2 1 0 2 1 131 777 1 786 0 0 786 0 1 1 0 784 0 1 3 1 1 783 1 1 349 789 1 0 1 774 782 2 1 1 0 1 81 0 1 777 782 3 779 0 1 781 3 781 780 1 0 774 789 1 0 1 775 1 0 1 0 0 791 505 781 1 1 0 2 783 2 781 288 791 789 0 2 785 782 1 0 1 2 3 2 0
split_gain=0.0873149 0.0117606 0.00577151 0.0057021 0.00396754 0.00344845 0.00395539 0.00159911 0.00110774 0.000953619 0.000813402 0.00252585 0.00071151 0.000661911 0.000464526 0.000459835 0.000420055 0.000384528 0.000357228 0.000314606 0.00027179 0.000217127 0.000201367 0.000190718 0.000187755 0.000195904 0.00030812 0.000175333 0.000142783 0.000128712 0.000124424 0.000118787 0.000118194 0.00011689 0.000359439 0.000442231 0.000114722 9.05693e-05 8.87576e-05 0.000124267 9.64211e-05 7.51717e-05 7.18586e-05 7.18045e-05 6.40473e-05 5.78937e-05 5.39115e-05 5.18909e-05 6.98631e-05 5.02019e-05 4.38246e-05 0.000503443 3.92512e-05 3.84423e-05 3.69477e-05 3.63023e-05 3.16858e-05 2.86693e-05 2.82482e-05 1.77564e-05 1.76926e-05 1.78446e-05 1.48933e-05 1.44113e-05 1.31314e-05 1.1901e-05 1.44574e-05 1.18141e-05 1.57942e-05 1.12217e-05 1.09297e-05 9.2871e-06 8.9873e-06 5.38818e-06 3.56419e-06 3.1412e-06 2.80432e-06 2.34223e-06 2.01765e-06 1.94443e-06 1.52277e-06 1.50818e-06 1.03742e-06 8.4806e-07 8.2732e-07 2.95925e-07 5.99285e-09
threshold=1.5000000000000002 21177181338.500004 1512064929127.5002 2.5000000000000004 1102360877.0000002 -1.0000000180025095e-35 -1.0000000180025095e-35 5345360160.500001 -0.001342347259762122 1565155737207.5002 1562870818026.0002 -9.4736909566193812e-06 1489187368638.5002 669460.00000000012 263490106.00000003 1543548151233.0002 -0.00028059406476776662 1506625687226.0002 56504607485.000008 1.0000000180025095e-35 127127369.50000001 99680820.500000015 -0.028845221930949974 2715481.0000000005 21948364142.500004 1.0000000180025095e-35 -1.0000000180025095e-35 263490106.00000003 1524361265175.5002 15776785522.500002 0.042723183935325253 0.00016023825745646426 3.5000000000000004 1.0000000180025095e-35 422684.00000000006 1524038012771.0002 2211399.0000000005 1.0000000180025095e-35 1561902454604.0002 51282979960.000008 -0.0012838579522590255 -4.9431615049049002e-06 1.0000000180025095e-35 0.068624850663747891 1508179659527.5002 21559235512.500004 -0.082699641950182132 1.0000000180025095e-35 -0.082699641950182132 0.0081516827664696832 14393236656.000002 1550463195162.5002 0.039723171125346339 -0.011478664773668459 25503501.000000004 1545254995405.5002 1153368.0000000002 0.030546558370834736 796121.50000000012 1523474229643.0002 34790983918.500008 1590161585927.0002 1497761851379.5002 -6.706770571797646e-16 1.0000000180025095e-35 -0.082699641950182132 428359615.00000006 9338955631.5000019 1517599867844.0002 4.5000000000000009 1.0000000180025095e-35 4.5000000000000009 0.00078553656106998928 1.0000000180025095e-35 0.031692967595779505 -0.0012422145419421079 1580369383760.0002 3.5000000000000004 -1.0000000180025095e-35 0.17228669434506932 34790983918.500008 1503427648312.0002 71329288315.500015 4.5000000000000009 1.0000000180025095e-35 4.5000000000000009 1515767072407.5002
decision_type=2 2 2 2 2 2 2 2 2 2 2 2 2 2 2 2 2 2 2 2 2 2 2 2 2 2 2 2 2 2 2 2 2 2 2 2 2 2 2 2 2 2 2 2 2 2 2 2 2 2 2 2 2 2 2 2 2 2 2 2 2 2 2 2 2 2 2 2 2 2 2 2 2 2 2 2 2 2 2 2 2 2 2 2 2 2 2
left_child=1 2 12 7 5 9 -7 17 -6 13 15 -12 41 -4 33 -10 37 43 22 20 21 -19 -3 58 28 26 -26 44 67 32 38 -22 50 74 35 -35 49 -14 40 -40 -24 -1 53 56 -21 -44 -29 48 -27 -36 59 -52 -25 -30 -38 -32 -2 64 -18 -16 61 71 -58 -63 -20 66 -34 68 -9 -67 -49 -31 73 -43 78 -69 -66 79 83 -62 -57 -79 -78 -5 -80 -76 -87
right_child=3 18 4 14 8 6 -8 24 10 -11 11 -13 16 -15 29 -17 23 19 57 27 31 -23 30 52 25 47 -28 46 42 60 55 -33 65 34 36 -37 54 -39 39 -41 -42 72 45 -45 -46 -47 -48 70 -50 -51 51 -53 -54 -55 -56 80 62 -59 -60 -61 77 63 -64 -65 76 69 -68 75 -70 -71 -72 -73 -74 -75 85 -77 82 81 84 -81 -82 -83 -84 -85 -86 86 -88
leaf_value=0.00080919330094305904 0.00080226487158579346 0.00082408098865211442 0.00084938862301590652 0.00079318774957884929 0.00087201864941655158 0.0008318885882463489 0.00094236576757471106 0.00079484318828861326 0.00082701112946117496 0.0008803461397830115 0.00089892762800885965 0.00081888715532461148 0.00083881938087109766 0.0008399207326629819 0.00079365902305069563 0.00081319609314483383 0.00083009970418765886 0.00080612389998559078 0.00079888404359597289 0.00080982768805528435 0.00080165972937563219 0.00082038272067891296 0.00082034122151437416 0.00081270060281632937 0.0007945250225236994 0.00080080396348162076 0.00082388508300186819 0.00080449253582135242 0.00080304441319242899 0.00079296243874217673 0.00080578537885437219 0.00080729082508650921 0.00079787065112970213 0.00079781365083819917 0.00079873354065030766 0.00083377925295992253 0.00079710553733442228 0.00082400531916848347 0.00080170831598015322 0.000818178671404368 0.0008089675682701968 0.00080186693000937792 0.00079677618115104004 0.00080443760799461426 0.00080166965393213628 0.00080663153588344182 0.00079837383257343349 0.00079489552658268707 0.00079548311211749784 0.00080656146179670322 0.00079365091134999202 0.00082540019749632995 0.00080387178311215374 0.00079898094711628018 0.00079508543875741718 0.00079921126103022194 0.00079473917191293553 0.00080322496473319237 0.0008210143650952044 0.00079429427253262957 0.00079248576976202875 0.00079413564401573133 0.00079674091997852402 0.00079970284295179377 0.00079593715371918325 0.00079325971316147274 0.00079374980113220621 0.00079330127758081906 0.00079784467306973084 0.00079286234275355869 0.00079379216649483136 0.00079242770707016778 0.00079641003874769169 0.00079798274414081031 0.00079261784023878493 0.00079457013747774455 0.0007944770779288946 0.00079284138697451924 0.00079463620739900003 0.00079413551276084611 0.00079725451007000311 0.00079221983317527946 0.00079283178837474789 0.00079244297432435056 0.00079331539869487058 0.00079202178059670659 0.00079191376978908165
leaf_count=38 27 25 434 129 20 20 28 217 458 26 22 40 39 686 3027 107 22 363 37 36 1519 43 35 103 31 94 22 54 92 3916 32 148 34 32 121 20 386 24 94 20 115 36 871 38 920 22 1296 520 1617 39 178 20 22 942 2095 22 309 22 28 3323 2384 70 236 22 39 4305 311 124 89 6306 854 1667 30 20 27 162 37 148 38 26 41 2788 22 96 31 22 116
internal_value=0 0.00547842 0.00650435 -0.000342517 0.00722208 0.00830273 0.0166066 0.000290636 0.00522781 0.00795492 0.00499412 0.00843245 0.0028542 0.00781593 -0.000555306 0.00461682 0.00386615 0.000703333 0.00130079 0.000806951 0.00108965 0.00182336 0.00182037 0.00306905 -7.3329e-05 -0.000236556 0.00166971 0.000552815 0.000130008 -0.000595561 0.00162928 0.000910956 -0.000542259 -0.000191012 -0.000111508 0.00249211 -0.000162772 0.00608033 0.00198243 0.00131732 0.00248791 0.000911913 0.000261968 -4.05075e-05 0.000880488 5.41741e-05 0.000320775 -0.000269305 -0.000153084 0.000657944 -0.000435967 2.73294e-05 0.0024088 0.000441427 -0.0002157 0.000647879 -0.000128939 2.99485e-05 0.00471966 -0.000450413 -0.000680216 -0.000641328 -0.000181325 -0.0002045 -0.000142557 -0.000605786 -0.000423003 -0.000299533 -0.000162961 -0.000611729 -0.000414032 -0.000648526 0.000394355 0.000630965 -0.000657465 -0.000445655 -0.000334193 -0.000721497 -0.00059145 -0.000698394 0.000207314 -0.000740461 -0.000471726 -0.000637326 -0.000441855 -0.000775092 -0.000793824
internal_count=45067 2744 2203 42323 1841 1194 48 10646 647 1146 627 62 362 1120 31677 565 238 4989 541 4379 2073 406 384 175 5657 3138 53 2306 2519 28525 359 1667 17504 3152 2693 52 2641 63 264 114 150 124 1927 610 956 893 1350 3085 1711 160 6548 198 125 1034 2481 95 572 157 50 6350 11021 5675 545 92 135 10956 345 592 306 10611 1374 5583 86 56 459 286 98 5346 294 2410 63 2936 59 225 69 165 138
shrinkage=1


Tree=1
num_leaves=84
num_cat=0
split_feature=2 0 2 0 300 777 777 3 0 0 0 788 788 3 791 0 791 300 772 505 2 0 0 0 396 0 605 779 0 782 0 81 0 791 787 0 0 0 0 355 605 772 781 0 0 2 0 0 782 599 774 396 787 2 0 0 0 772 779 781 81 0 0 779 782 0 775 0 777 396 288 0 0 785 0 779 0 0 605 599 774 0 505
split_gain=0.0862703 0.00593214 0.00563388 0.00476434 0.00333509 0.00270533 0.00098112 0.000786446 0.00145916 0.000696198 0.00041703 0.000358613 0.000323597 0.00030361 0.0002845 0.000202279 0.000202084 0.000355392 0.000577594 0.000163869 0.000149971 0.000143688 0.000124059 0.00022901 0.000111962 0.000109326 0.000107977 9.07616e-05 8.25874e-05 8.21236e-05 8.0384e-05 7.28983e-05 5.8075e-05 5.79046e-05 5.71471e-05 6.32516e-05 6.23263e-05 2.94975e-05 2.9135e-05 2.78068e-05 2.70498e-05 2.35361e-05 1.92399e-05 1.59964e-05 5.09422e-05 1.44749e-05 1.3399e-05 1.55302e-05 1.32194e-05 1.29249e-05 1.19413e-05 3.03793e-05 1.14982e-05 1.02457e-05 9.35698e-06 1.78117e-05 8.54383e-06 8.02154e-06 7.11538e-06 6.27598e-06 5.88509e-06 5.88259e-06 2.52392e-05 5.76292e-06 5.38031e-06 5.52189e-06 4.96839e-06 3.95847e-06 3.95413e-06 3.64515e-06 3.43495e-06 3.16602e-06 3.13246e-06 2.69041e-06 2.50533e-06 1.97289e-06 1.80426e-06 1.67572e-06 1.49804e-06 1.22938e-06 1.17624e-06 1.13866e-06 3.49697e-07
threshold=1.5000000000000002 1568054211061.5002 2.5000000000000004 1512064929127.5002 -1.0000000180025095e-35 -1.0000000180025095e-35 0.1928279767295428 1.0000000180025095e-35 1514581091712.0002 1489187368638.5002 1538441455985.0002 0.013774564150262502 0.012002936546676951 1.0000000180025095e-35 0.023609122882345328 1568054211061.5002 -6.0479115303284176e-14 -1.0000000180025095e-35 0.030836925629896917 1.0000000180025095e-35 3.5000000000000004 1566375678542.5002 1506625687226.0002 1534854378273.0002 1.0000000180025095e-35 1573606917241.5002 1.0000000180025095e-35 0.0014736008487029099 1507700711184.5002 -4.9431615049049002e-06 1509510029484.5002 1.0000000180025095e-35 1566202587507.0002 -3.3345608016367926e-15 0.00045706777583944685 1556109832967.0002 1544535491951.0002 1537127804336.0002 1566518250308.5002 1.0000000180025095e-35 1.0000000180025095e-35 0.040120079391491877 -0.082699641950182132 1523474229643.0002 1526423920314.0002 4.5000000000000009 1574149974427.0002 1568054211061.5002 1.0047834625394951e-05 1.0000000180025095e-35 0.0042934444574579183 1.0000000180025095e-35 -0.35433375321572347 4.5000000000000009 1536176240959.0002 1523566910891.5002 1460701884568.5002 0.017721624024915152 1.0000000180025095e-35 0.00078553656106998928 1.0000000180025095e-35 1521449434891.5002 1523566910891.5002 0.047803680098852649 0.17228669434506932 1565701030528.0002 0.022564006981607383 1587412193262.5002 1.0000000180025095e-35 1.0000000180025095e-35 1.0000000180025095e-35 1573010819116.5002 1487592655254.5002 -1.9215925284373042e-05 1537900196522.0002 0.068624850663747891 1571767533211.5002 1593193448983.5002 1.0000000180025095e-35 1.0000000180025095e-35 1.0000000180025095e-35 1589483693377.0002 1.0000000180025095e-35
decision_type=2 2 2 2 2 2 2 2 2 2 2 2 2 2 2 2 2 2 2 2 2 2 2 2 2 2 2 2 2 2 2 2 2 2 2 2 2 2 2 2 2 2 2 2 2 2 2 2 2 2 2 2 2 2 2 2 2 2 2 2 2 2 2 2 2 2 2 2 2 2 2 2 2 2 2 2 2 2 2 2 2 2 2
left_child=1 3 13 9 6 -6 7 8 -5 29 -7 -9 24 16 25 26 21 22 -19 -14 32 30 56 -24 41 27 34 -3 -21 -1 48 -32 40 -26 36 -36 -15 42 39 -28 43 -11 61 58 -45 49 47 -23 -2 -44 51 -27 -47 64 55 -42 -18 81 -4 70 -52 72 -63 73 65 -39 -56 -48 74 82 -31 -65 -22 76 -55 -71 -34 -73 -53 -75 -70 -17 -59
right_child=2 14 20 4 5 10 -8 11 -10 12 -12 -13 19 15 -16 57 17 18 -20 28 37 46 23 -25 33 50 38 -29 -30 59 31 -33 63 -35 35 -37 -38 53 -40 -41 54 -43 45 44 -46 52 67 -49 -50 -51 60 78 -54 68 66 -57 -58 69 -60 -61 -62 62 -64 71 -66 -67 -68 -69 80 75 -72 77 -74 79 -76 -77 -78 -79 -80 -81 -82 -83 -84
leaf_value=1.2424371206682402e-05 4.9478726564984757e-07 1.687188197774958e-05 -3.0994313042588651e-06 7.829797672457062e-05 3.4086957727725216e-05 0.00012825251472531817 6.7850129372489293e-05 3.1003425886992259e-05 3.9401600810001072e-05 2.8268484615678476e-05 9.0396625734865676e-05 3.9094955389083515e-05 4.7029372265387786e-05 2.1156512258779508e-06 2.3591723053767865e-05 -1.4560335419244237e-06 2.4679466810734343e-06 4.3038925085883504e-05 3.8056444426599362e-06 1.9470187626817886e-05 -2.3996144550535895e-06 -3.442269652671377e-06 6.6186505778603293e-06 2.4104988522033956e-06 1.6659857718133769e-05 6.1873238002000429e-06 3.2014961096637188e-07 1.9346049375599249e-06 3.4052331063792041e-05 3.9883841846775874e-06 4.0893105138123625e-06 1.9186598972174537e-06 -3.8163247890581906e-06 7.112953893374651e-06 3.4692158011845704e-06 1.5741099304120456e-05 1.7196029915045236e-07 -3.5948671138443738e-06 6.3821613875916232e-06 -1.3309472775517862e-06 -3.1624177567887181e-06 2.0865254213416706e-05 -2.8291125642196737e-06 1.7903424970028448e-07 -2.3818678407503385e-06 -3.5548903562468353e-07 -3.1719725653601925e-06 9.917520549775727e-07 -2.078384386967845e-06 -3.5000273483382716e-06 -3.402062543318607e-06 4.1053137586762504e-08 -3.7098353049125829e-06 -2.9234284515773832e-06 -3.5395109669483994e-06 -2.1369861016304749e-06 -1.6165981816558864e-06 -4.3330818088131645e-06 -2.4773890853978843e-06 -2.8219139348948376e-07 1.9615886882699368e-07 2.2964646814216395e-06 -2.5945218826214281e-06 -1.0089152213279909e-06 -1.4951906845313857e-06 -4.1389641869054121e-06 -2.7574884032424787e-06 -1.676856487071799e-06 -4.2555156987181223e-06 -3.0169595702700084e-06 1.038993053433452e-06 -3.6974638481167079e-06 -3.8840300877820011e-06 -3.3872131744430356e-06 -4.0252306130209531e-06 -1.2906844609600601e-06 -4.4339788760790217e-06 -1.9136425583453203e-06 -1.8693865356247194e-06 -3.9295570222228499e-06 -4.5821546207805926e-06 4.0681203816867704e-07 -3.6981200150962048e-06
leaf_count=38 150 32 1350 36 28 22 38 710 977 22 20 273 20 2257 27 27 21 22 35 27 139 38 811 1093 66 37 1013 27 29 44 814 1764 247 35 54 21 806 2586 24 576 1764 52 1670 301 3940 37 120 113 138 2713 30 45 6452 77 1368 932 151 76 1299 30 36 48 182 31 39 907 372 136 1143 286 21 70 81 247 2115 26 548 26 22 385 608 21 53
internal_value=0 0.00544555 -0.000340461 0.00591719 0.00650837 0.0132951 0.00627481 0.00617898 0.00679732 0.00267803 0.018371 0.00554177 0.00365817 0.000288892 0.000861825 0.000117363 0.000455154 0.000694653 0.00315805 0.00538114 -0.000551974 0.000299073 0.000627017 0.00070049 0.00290991 0.000499844 0.000180397 0.0016727 0.00450361 0.000828281 0.000378031 0.000434007 -0.000468852 0.00222525 0.000288481 0.00115089 0.000267365 -0.000608931 -2.98762e-05 -4.63933e-05 -0.000443979 0.00384437 -0.000576743 -0.000404766 -0.000366685 -0.00058513 -0.000256932 -2.06824e-05 -0.000123032 -0.000540733 9.27958e-05 0.000303929 -0.000615118 -0.000657685 -0.000504885 -0.000467988 -0.000186317 -0.000495055 -0.000465733 0.000331302 -0.000239899 -0.000374121 -0.000262299 -0.000650132 -0.000618567 -0.000622691 -0.000562053 -0.000396282 -0.000692724 -0.00053731 0.000505917 -0.000446002 -0.000491025 -0.000668299 -0.000664421 -0.000478851 -0.000707013 -0.000535724 -9.77092e-05 -0.000619599 -0.000728156 -0.00010684 -0.000678701
internal_count=45067 2744 42323 2488 2104 70 2034 1996 1013 384 42 983 251 10646 256 5240 5406 2133 57 76 31677 3273 2076 1904 175 229 4751 59 56 133 2866 2578 12880 101 3138 75 3063 18797 1613 1589 11326 74 11322 6890 4241 10872 407 151 288 4383 170 104 6489 7475 4436 2696 172 489 2649 95 66 450 230 1554 3532 3493 1740 256 3943 441 65 127 220 1427 2192 312 795 96 67 632 1751 48 129
shrinkage=0.006


Tree=2
num_leaves=89
num_cat=0
split_feature=2 1 2 1 777 300 1 1 436 3 1 1 1 791 1 1 779 777 783 1 790 1 3 783 3 776 1 349 789 599 1 774 782 2 1 1 1 774 1 3 81 1 1 1 1 3 790 780 1 1 1 1 789 296 787 1 788 790 789 396 1 783 786 1 605 1 787 1 781 1 2 783 1 2 791 773 776 782 2 785 782 599 1 2 3 790 2 1
split_gain=0.0852381 0.011563 0.00556648 0.00400888 0.00265638 0.00225771 0.00157624 0.000875381 0.00141203 0.000797434 0.00115435 0.00172018 0.00045842 0.000455129 0.00154103 0.000448017 0.000432163 0.000415464 0.000347041 0.000345803 0.000324684 0.000322235 0.000202912 0.000199777 0.000185527 0.000206115 0.000184345 0.000192987 0.000303814 0.000152759 0.000126705 0.000122603 0.000117009 0.000115544 0.00011525 0.000355016 0.000113263 0.000109582 7.29355e-05 7.14916e-05 7.11321e-05 6.47337e-05 6.02607e-05 5.93092e-05 0.000105409 5.04021e-05 6.94597e-05 4.96106e-05 4.90441e-05 4.37364e-05 4.32881e-05 0.000241139 3.91561e-05 3.71241e-05 3.66228e-05 3.6504e-05 3.57404e-05 3.48111e-05 3.13138e-05 0.000157772 2.84216e-05 2.14217e-05 1.80014e-05 1.73519e-05 1.34713e-05 1.27682e-05 1.19651e-05 2.31817e-05 1.16109e-05 1.42478e-05 1.09437e-05 1.07752e-05 9.95137e-06 8.98496e-06 3.49203e-06 3.42799e-06 2.58861e-06 2.5017e-06 2.24962e-06 1.99371e-06 1.92722e-06 1.87363e-06 8.79897e-07 8.28318e-07 8.16227e-07 6.1834e-07 2.85751e-07 2.31704e-09
threshold=1.5000000000000002 21177181338.500004 2.5000000000000004 3429187.5000000005 0.1928279767295428 -1.0000000180025095e-35 5345360160.500001 1187592318.0000002 1.0000000180025095e-35 1.0000000180025095e-35 582112.50000000012 489755.00000000006 263490106.00000003 -0.0053848027840129797 16236853876.000002 345353570.00000006 -0.025111284465022161 0.00088149192650516348 0.0041284297974568699 56504607485.000008 -0.013407617604990627 263490106.00000003 1.0000000180025095e-35 -0.028845221930949974 1.0000000180025095e-35 0.016070725617987013 21948364142.500004 1.0000000180025095e-35 -1.0000000180025095e-35 1.0000000180025095e-35 15776785522.500002 0.042723183935325253 0.00016023825745646426 3.5000000000000004 1.0000000180025095e-35 422684.00000000006 2211399.0000000005 -0.018410897393703711 3879361005.0000005 1.0000000180025095e-35 1.0000000180025095e-35 21559235512.500004 1812678241.5000002 46359800611.500008 30867729873.000004 1.0000000180025095e-35 -0.028847339457420271 0.0081516827664696832 422684.00000000006 489755.00000000006 14393236656.000002 14554215035.500002 0.00037725660017723481 -1.0000000180025095e-35 0.00045706777583944685 25503501.000000004 0.012098963753285867 0.016077655012276707 -0.011478664773668459 1.0000000180025095e-35 31380101884.000004 0.00014754750323338158 -1.0000000180025095e-35 34790983918.500008 1.0000000180025095e-35 1032177145.5000001 1.2069625136384425e-08 62203639034.500008 -0.082699641950182132 428359615.00000006 4.5000000000000009 1.0000000180025095e-35 8021422639.000001 4.5000000000000009 0.031692967595779505 0.082981115293468619 -1.0000000180025095e-35 6.8526390757203547e-06 3.5000000000000004 -1.0000000180025095e-35 0.17228669434506932 1.0000000180025095e-35 67058707442.000008 4.5000000000000009 1.0000000180025095e-35 -0.036449175982621131 4.5000000000000009 -20882708138.499996
decision_type=2 2 2 2 2 2 2 2 2 2 2 2 2 2 2 2 2 2 2 2 2 2 2 2 2 2 2 2 2 2 2 2 2 2 2 2 2 2 2 2 2 2 2 2 2 2 2 2 2 2 2 2 2 2 2 2 2 2 2 2 2 2 2 2 2 2 2 2 2 2 2 2 2 2 2 2 2 2 2 2 2 2 2 2 2 2 2 2
left_child=1 3 6 5 7 9 21 8 -5 10 11 -1 34 14 -9 -10 48 -12 -18 23 -15 24 32 -3 25 40 39 28 -28 -27 33 43 42 50 74 37 47 -36 -34 58 -2 64 -23 44 -25 46 -29 -37 -11 -7 72 -52 -45 65 57 -38 -55 -26 59 -8 -33 66 -60 73 -41 -24 67 -21 69 -35 -70 -47 -14 75 79 -32 -69 -75 80 83 -65 -62 -68 -4 -81 -80 -76 -88
right_child=2 19 12 4 -6 49 26 13 15 16 17 -13 30 20 -16 -17 18 -19 -20 61 -22 22 53 31 54 29 27 45 -30 -31 63 60 38 68 35 36 55 -39 -40 41 -42 -43 -44 52 -46 71 -48 -49 -50 -51 51 -53 -54 56 -56 -57 -58 -59 62 -61 81 -63 -64 78 -66 -67 82 76 70 -71 -72 -73 -74 77 86 -77 -78 -79 85 84 -82 -83 -84 -85 -86 -87 87 -89
leaf_value=5.6995754032170462e-05 9.9516227842204075e-06 2.7089838080573826e-05 -3.4671385272219577e-06 7.7343350290401104e-05 9.9589387936118462e-05 9.8752586077898729e-05 2.0020176074467599e-05 2.7436309742522392e-05 3.1324991738769266e-05 3.2043874718510777e-05 3.5392760074399933e-05 0.00011158329158206472 -2.5479268302636609e-06 4.0326647543198695e-05 6.9382096935745124e-05 4.1950665269591236e-05 4.2417516298148424e-05 5.5301610876179846e-05 6.8212268315255651e-05 6.0636392881860966e-06 2.1226863977974643e-05 4.9852546293880317e-06 1.2573246281438819e-06 1.5008992787810944e-05 5.0305874212581661e-06 2.3168433700707935e-05 -2.16517390893592e-06 3.4395240280170332e-06 2.6988997518360108e-05 8.8146013902801591e-06 -3.6646645542089615e-06 7.6355422307432706e-06 7.9803650249290978e-06 1.1794872005018133e-06 7.1214928973169101e-06 2.0434568341668578e-06 4.2734509558938513e-07 2.4658659936192082e-05 2.0327780203660952e-05 2.7502088184418176e-08 5.6211468894630911e-06 9.8789336281532249e-06 2.5068310391360008e-06 1.2506676959067894e-05 6.5085417582169706e-06 -1.785514558112202e-06 -1.2583440929116414e-06 9.8251396456572153e-06 2.1454773118509162e-05 8.6493139731994069e-05 1.554711182055349e-05 -2.674155430572873e-06 2.3039594188048798e-05 1.3079870911152463e-06 1.122842397653585e-05 -1.5805876518414647e-06 3.5072998146283568e-06 2.2449451298689838e-06 8.341465418845773e-07 1.3895792572535964e-06 1.8470491170988037e-06 5.92140597946127e-06 2.3093116059613063e-06 -4.1630256937605048e-06 -1.2914780790585385e-06 -1.5432678454609619e-06 -4.086700645116666e-06 -1.9840018040364764e-06 -3.3934790804765786e-06 -2.911381141184919e-06 -3.785895301849255e-06 -2.8810503485848734e-06 -3.1316433288065353e-06 -3.9140628446183991e-06 -4.0337158392907851e-06 -1.7227705102413894e-06 4.2400261270813647e-07 -4.3766644559257006e-06 -3.5208820381426606e-06 -2.0259303955275467e-06 -2.5206008912601437e-06 -4.0012092887826098e-07 -2.4254726886283607e-06 -4.2031942830362822e-06 -3.337854172470191e-06 -4.4013660867747056e-06 -4.6701740080607123e-06 -4.7243634804285001e-06
leaf_count=155 220 25 129 29 21 20 20 254 466 32 108 24 5020 35 36 206 307 58 20 21 379 918 90 94 857 56 31 122 22 51 3940 39 124 34 29 121 386 23 20 683 360 22 574 27 119 520 1589 39 31 22 31 167 24 953 30 2095 369 199 730 90 34 20 503 2384 471 168 22 45 4305 311 6306 854 1330 762 27 33 25 940 29 38 26 22 24 96 31 2907 40 98
internal_value=0 0.00541288 -0.000338419 0.00643015 0.00543439 0.00825763 0.000287158 0.00526752 0.00605855 0.00785015 0.00895761 0.0107191 -0.000548663 0.00447988 0.00544056 0.00576371 0.00687048 0.00705814 0.00733253 0.00127048 0.00380693 0.000696895 0.000508193 0.00178169 0.00103918 0.00144589 -7.41949e-05 -0.000235932 0.00165609 0.00272115 -0.000588651 0.00159135 0.000755043 -0.000535767 -0.00018677 -0.000107827 -0.000158774 0.00247972 0.00161588 0.000127287 0.00121062 -5.27446e-05 0.00067196 0.00194191 0.00170999 -0.000268437 -0.000153895 0.000656707 0.00447223 0.0153885 -0.000430674 2.97782e-05 0.00291056 0.000252594 0.000781892 -0.000211365 0.000320311 0.00075094 0.000284931 0.00079616 0.000617163 2.01335e-05 0.000239323 -0.000672644 -8.5139e-05 -9.43862e-05 -0.000121 8.91143e-05 -0.000598578 -0.000418037 -0.000604448 -0.000411073 -0.000445031 -0.000634132 -0.000649939 -0.000608089 -0.000187333 -0.000694926 -0.000713526 -0.000584595 -0.000690884 0.000160705 -0.000536662 -0.000630198 -0.000435891 -0.000732112 -0.000766369 -0.000784776
internal_count=45067 2744 42323 2203 1426 777 10646 1405 701 735 345 179 31677 704 290 672 390 166 327 541 414 4989 3216 384 1773 687 5657 3138 53 107 28525 359 1636 17504 3152 2693 2641 52 144 2519 580 1176 1492 264 213 3085 1711 160 63 42 6548 198 51 1580 1086 2481 1322 1056 1343 110 95 157 1233 11021 1154 258 137 91 10956 345 10611 1374 6350 5675 459 3973 70 1702 5346 294 2410 56 46 225 69 2936 165 138
shrinkage=0.006


Tree=3
num_leaves=90
num_cat=0
split_feature=2 1 0 2 1 131 777 1 0 775 0 0 1 790 1 0 784 0 1 3 1 1 783 1 1 349 777 1 780 0 1 774 782 2 1 1 0 1 0 1 0 1 777 782 3 773 0 1 781 3 790 780 1 0 774 1 0 787 1 775 1 776 0 1 0 791 505 1 0 781 1 2 783 2 781 288 791 773 0 2 785 782 0 1 1 2 3 2 0
split_gain=0.0842183 0.0114247 0.00563375 0.00549988 0.0038755 0.00333609 0.00387411 0.00155739 0.00107843 0.00531113 0.000942959 0.000693175 0.00064436 0.000589023 0.000452935 0.000450845 0.000410829 0.000377753 0.000341666 0.000304562 0.000265525 0.000214464 0.000197387 0.000185896 0.00018214 0.000190678 0.000296266 0.000171145 0.000142025 0.000140833 0.000125189 0.000121136 0.000115617 0.000114162 0.000113871 0.000350768 0.000436334 0.000111908 9.00693e-05 0.000160432 8.52634e-05 0.000122729 9.53012e-05 7.32221e-05 6.93593e-05 6.92814e-05 6.32904e-05 5.65348e-05 5.30787e-05 4.97991e-05 6.86287e-05 4.90171e-05 4.27702e-05 0.000496952 3.86691e-05 3.60673e-05 3.47718e-05 3.38752e-05 3.00294e-05 2.80108e-05 2.75739e-05 1.91857e-05 1.73992e-05 1.71443e-05 1.7674e-05 1.42002e-05 1.27033e-05 1.16542e-05 1.5481e-05 1.1472e-05 1.40774e-05 1.08127e-05 1.06463e-05 8.8788e-06 8.74186e-06 5.20553e-06 3.45025e-06 2.79137e-06 2.47756e-06 2.22271e-06 1.96986e-06 1.90416e-06 1.47886e-06 1.44502e-06 1.0152e-06 8.18409e-07 8.06462e-07 2.82332e-07 5.44782e-09
threshold=1.5000000000000002 21177181338.500004 1512064929127.5002 2.5000000000000004 1102360877.0000002 -1.0000000180025095e-35 -1.0000000180025095e-35 5345360160.500001 1562694958955.0002 0.017713360765947733 1565155737207.5002 1489187368638.5002 669460.00000000012 0.037849192674313782 263490106.00000003 1543548151233.0002 -0.00028059406476776662 1506625687226.0002 56504607485.000008 1.0000000180025095e-35 127127369.50000001 99680820.500000015 -0.028845221930949974 2715481.0000000005 21948364142.500004 1.0000000180025095e-35 -1.0000000180025095e-35 263490106.00000003 0.00098623936756466368 1524361265175.5002 15776785522.500002 0.042723183935325253 0.00016023825745646426 3.5000000000000004 1.0000000180025095e-35 422684.00000000006 1524038012771.0002 2211399.0000000005 1507331652468.5002 284870531.00000006 1561902454604.0002 51282979960.000008 -0.0012838579522590255 -4.9431615049049002e-06 1.0000000180025095e-35 0.078489084533689454 1508179659527.5002 21559235512.500004 -0.082699641950182132 1.0000000180025095e-35 -0.028847339457420271 0.0081516827664696832 14393236656.000002 1550463195162.5002 0.039723171125346339 25503501.000000004 1545254995405.5002 -1.3675536933537727e-07 1153368.0000000002 0.030546558370834736 796121.50000000012 -0.063601766432816717 1523474229643.0002 34790983918.500008 1590161585927.0002 -6.706770571797646e-16 1.0000000180025095e-35 9338955631.5000019 1517599867844.0002 -0.082699641950182132 428359615.00000006 4.5000000000000009 1.0000000180025095e-35 4.5000000000000009 0.00078553656106998928 1.0000000180025095e-35 0.031692967595779505 -0.036142071053056189 1580369383760.0002 3.5000000000000004 -1.0000000180025095e-35 0.17228669434506932 1503427648312.0002 34790983918.500008 71329288315.500015 4.5000000000000009 1.0000000180025095e-35 4.5000000000000009 1515767072407.5002
decision_type=2 2 2 2 2 2 2 2 2 2 2 2 2 2 2 2 2 2 2 2 2 2 2 2 2 2 2 2 2 2 2 2 2 2 2 2 2 2 2 2 2 2 2 2 2 2 2 2 2 2 2 2 2 2 2 2 2 2 2 2 2 2 2 2 2 2 2 2 2 2 2 2 2 2 2 2 2 2 2 2 2 2 2 2 2 2 2 2 2
left_child=1 2 11 7 5 10 -7 17 13 28 12 43 -4 15 34 -6 38 45 22 20 21 -19 -3 60 29 26 -26 46 -10 67 33 40 -22 52 76 36 -36 51 -13 -40 42 -42 -24 -1 57 58 -21 -46 -29 50 -27 -37 62 -54 -25 -39 -33 -31 -2 66 -18 -60 -16 64 73 -66 -20 68 -9 70 -35 -71 -51 -32 75 -45 80 -69 -68 81 85 -65 -81 -58 -80 -5 -82 -78 -89
right_child=3 18 4 14 8 6 -8 24 9 -11 -12 16 -14 -15 30 -17 23 19 59 27 32 -23 31 54 25 49 -28 48 -30 44 63 56 -34 69 35 37 -38 55 39 -41 41 -43 -44 74 47 -47 -48 -49 -50 72 -52 -53 53 -55 -56 -57 83 -59 61 -61 -62 -63 -64 79 65 -67 78 77 -70 71 -72 -73 -74 -75 -76 -77 87 -79 84 82 86 -83 -84 -85 -86 -87 -88 88 -90
leaf_value=1.2145040482927901e-05 5.494628625456244e-06 2.6927299448288978e-05 5.1852211557173931e-05 -3.4463356967662127e-06 2.9621668862155295e-05 3.4237886220216757e-05 0.00014357398282819692 -1.8508622164903468e-06 2.6129141601774357e-05 0.00013237098384914653 8.2681116542796819e-05 4.5988569801141113e-05 4.2510692206128271e-05 5.9410616589177931e-05 -2.9832338398882819e-06 1.5834337606377504e-05 3.277902380266989e-05 9.2917164279956634e-06 2.0923968734899286e-06 1.3018922839061514e-05 4.8884242238397984e-06 2.3462819965484522e-05 2.3223197105107827e-05 1.5605842176846284e-05 -2.0735228899866342e-06 3.4188870637886107e-06 2.6716225187886848e-05 7.7251049341511033e-06 4.2671849918406225e-06 1.4918259797869353e-06 -3.6688351689764156e-06 8.7740534527256384e-06 1.0443897312167816e-05 1.1724102240644724e-06 1.0486538731129259e-06 2.031196121892253e-06 3.6773675361473582e-05 4.2478101718447738e-07 4.2496529457691524e-05 1.9043346924133532e-05 4.7986549901171649e-06 2.1166764834924835e-05 1.1915788207227745e-05 4.9077031593090694e-06 8.0655998687953314e-08 9.5141692209290334e-06 4.9092374463231431e-06 9.8196598410140731e-06 1.6538445909338442e-06 -1.7748015018416761e-06 -1.2507940132005805e-06 9.766188725524655e-06 -3.0086600828847656e-06 2.8535289035062306e-05 6.8427338952791282e-06 -1.5711041181301942e-06 2.3342003981021911e-06 3.6644207700118125e-06 4.7860034494078723e-06 6.3980529881849758e-06 2.3802773792080449e-05 -1.1988133777735547e-06 -2.3544071912093732e-06 -4.1380474139253504e-06 -2.4950571773972894e-06 3.031209238212217e-06 -8.6052283096740636e-07 -3.3940466414566364e-06 1.1207101845970653e-06 -3.3731182441991032e-06 -2.893912867688607e-06 -3.763179945947734e-06 -2.8637640649011398e-06 -4.1916801601446428e-06 -4.6951723052188759e-07 1.08991893152961e-06 -4.0095135595442518e-06 -2.1851318010145373e-06 -2.2026587578914809e-06 -3.7818575207918028e-06 -2.013774777113117e-06 -2.5054772447149915e-06 -4.3973387866221001e-06 4.2805709427938845e-07 -3.8302324031643702e-06 -4.1779752209549771e-06 -3.3178270663953416e-06 -4.5938397868832742e-06 -4.6968219414401543e-06
leaf_count=38 27 25 434 129 457 20 28 217 23 21 26 21 686 21 3027 105 22 363 37 36 1519 43 35 103 31 122 22 54 20 505 3916 32 148 34 32 121 20 386 21 21 94 20 115 36 871 25 920 22 1296 520 1589 39 178 20 22 2095 22 529 20 22 28 538 3323 2384 70 22 39 115 89 4305 311 6306 854 1667 30 20 27 171 37 148 38 26 2788 41 22 96 31 22 116
internal_value=0 0.0053804 0.00639157 -0.000336388 0.00710069 0.00816872 0.0163362 0.000285436 0.00512968 0.00902631 0.00782663 0.00278525 0.00768842 0.00470192 -0.000545371 0.00450762 0.00378407 0.000692714 0.00126286 0.000795415 0.00107357 0.00179877 0.001771 0.00299577 -7.37497e-05 -0.000234517 0.00164616 0.000545368 0.00266013 0.000126523 -0.00058512 0.00158181 0.000896942 -0.000532553 -0.000185649 -0.00010718 0.00246484 -0.000157822 0.0059738 0.00512832 0.00193026 0.00127838 0.0024257 0.000868147 0.00025758 -4.45444e-05 0.000869104 5.34311e-05 0.000316116 -0.000266827 -0.000152972 0.000652767 -0.000428089 2.95996e-05 0.00234392 -0.000210097 0.00061346 0.00043389 -0.000114213 2.00127e-05 0.00462539 -0.000164051 -0.000442361 -0.000668608 -0.000630328 -0.000195593 -0.0001505 -0.000300075 -0.00016443 -0.000594986 -0.000415529 -0.000600821 -0.000408606 -0.000637491 0.000357345 0.000590701 -0.000646039 -0.000445206 -0.000338986 -0.000709245 -0.000581088 -0.000686739 -0.000727719 0.000182282 -0.000468258 -0.000626417 -0.000433276 -0.00076177 -0.000780067
internal_count=45067 2744 2203 42323 1841 1194 48 10646 647 64 1146 362 1120 583 31677 562 238 4989 541 4379 2073 406 384 175 5657 3138 53 2306 43 2519 28525 359 1667 17504 3152 2693 52 2641 63 42 264 114 150 124 1927 610 956 893 1350 3085 1711 160 6548 198 125 2481 95 1034 585 157 50 558 6350 11021 5675 92 135 592 306 10956 345 10611 1374 5583 86 56 459 286 98 5346 294 2410 2936 63 59 225 69 165 138
shrinkage=0.006


Tree=4
num_leaves=92
num_cat=0
split_feature=2 1 0 2 1 131 777 1 0 775 0 785 0 1 0 791 1 784 0 1 3 1 1 783 1 1 349 789 1 786 0 1 774 782 2 1 1 0 1 396 0 1 777 1 782 779 3 0 396 396 1 781 3 781 1 0 772 788 0 1 2 775 0 0 1 0 0 791 505 1 0 781 1 2 783 2 781 288 791 789 772 2 785 782 0 1 779 2 3 2 0
split_gain=0.0832108 0.011288 0.00556635 0.00543408 0.00382913 0.00329618 0.00382776 0.00153875 0.00106553 0.00524759 0.00093541 0.00258294 0.000684882 0.000639742 0.000537187 0.000625363 0.000447517 0.000405913 0.000373233 0.000337578 0.000300918 0.000262349 0.000211898 0.000195025 0.000183672 0.000179961 0.000188397 0.000297718 0.000169097 0.000140326 0.000139149 0.000123691 0.000119687 0.000114234 0.000112796 0.000112509 0.000346585 0.000323171 9.10381e-05 8.96978e-05 8.42433e-05 0.000121261 9.4161e-05 7.67697e-05 7.2346e-05 6.98827e-05 6.85295e-05 6.25332e-05 6.2286e-05 6.22598e-05 5.58584e-05 5.24437e-05 4.92033e-05 6.7487e-05 4.22585e-05 0.000491006 4.05745e-05 3.85092e-05 3.43558e-05 3.07558e-05 2.91724e-05 2.76757e-05 2.65944e-05 1.7191e-05 1.69392e-05 1.74625e-05 1.4766e-05 1.40303e-05 1.25513e-05 1.15148e-05 1.52958e-05 1.13347e-05 1.39089e-05 1.06834e-05 1.05189e-05 8.77257e-06 8.63727e-06 5.14325e-06 3.40897e-06 3.06267e-06 2.74758e-06 2.19612e-06 1.94629e-06 1.88138e-06 1.46116e-06 1.42773e-06 9.26059e-07 8.08617e-07 7.96813e-07 2.78954e-07 5.38262e-09
threshold=1.5000000000000002 21177181338.500004 1512064929127.5002 2.5000000000000004 1102360877.0000002 -1.0000000180025095e-35 -1.0000000180025095e-35 5345360160.500001 1562694958955.0002 0.017713360765947733 1562088032325.0002 -1.9215925284373042e-05 1489187368638.5002 669460.00000000012 1543548151233.0002 0.023609122882345328 263490106.00000003 -0.00028059406476776662 1506625687226.0002 56504607485.000008 1.0000000180025095e-35 127127369.50000001 99680820.500000015 -0.028845221930949974 2715481.0000000005 21948364142.500004 1.0000000180025095e-35 -1.0000000180025095e-35 263490106.00000003 5.7036084467781591e-07 1524361265175.5002 15776785522.500002 0.042723183935325253 0.00016023825745646426 3.5000000000000004 1.0000000180025095e-35 669460.00000000012 1524519517548.5002 15605993280.000002 1.0000000180025095e-35 1561902454604.0002 51282979960.000008 -0.0012838579522590255 25503501.000000004 -4.9431615049049002e-06 0.068624850663747891 1.0000000180025095e-35 1508179659527.5002 1.0000000180025095e-35 1.0000000180025095e-35 21559235512.500004 -0.082699641950182132 1.0000000180025095e-35 -0.082699641950182132 14393236656.000002 1550463195162.5002 0.02429865713043847 -0.013560871992908886 1545254995405.5002 1153368.0000000002 3.5000000000000004 0.030546558370834736 1542787810339.5002 1523474229643.0002 34790983918.500008 1590161585927.0002 1497761851379.5002 -6.706770571797646e-16 1.0000000180025095e-35 9338955631.5000019 1517599867844.0002 -0.082699641950182132 428359615.00000006 4.5000000000000009 1.0000000180025095e-35 4.5000000000000009 0.00078553656106998928 1.0000000180025095e-35 0.031692967595779505 -0.0012422145419421079 0.038427084677968959 3.5000000000000004 -1.0000000180025095e-35 0.17228669434506932 1503427648312.0002 34790983918.500008 -0.0038656432117229931 4.5000000000000009 1.0000000180025095e-35 4.5000000000000009 1515767072407.5002
decision_type=2 2 2 2 2 2 2 2 2 2 2 2 2 2 2 2 2 2 2 2 2 2 2 2 2 2 2 2 2 2 2 2 2 2 2 2 2 2 2 2 2 2 2 2 2 2 2 2 2 2 2 2 2 2 2 2 2 2 2 2 2 2 2 2 2 2 2 2 2 2 2 2 2 2 2 2 2 2 2 2 2 2 2 2 2 2 2 2 2 2 2
left_child=1 2 12 7 5 10 -7 18 14 29 13 -12 44 -4 15 -6 35 39 45 23 21 22 -20 -3 49 30 27 -27 47 -10 69 34 40 -23 54 78 37 60 -16 -14 42 -42 -25 48 -1 59 56 -22 -38 -19 -48 -30 53 -28 63 -56 -32 -26 -34 -2 -37 68 -45 -18 65 75 -61 -67 -21 70 -9 72 -36 -73 -54 -33 77 -46 82 -71 -70 83 87 -66 -83 -60 -82 -5 -84 -80 -91
right_child=3 19 4 16 8 6 -8 25 9 -11 11 -13 17 -15 38 -17 31 24 20 61 28 33 -24 32 57 26 52 -29 51 -31 46 64 58 -35 71 36 43 -39 -40 -41 41 -43 -44 62 76 -47 50 -49 -50 -51 -52 -53 74 -55 55 -57 -58 -59 85 66 -62 -63 -64 -65 81 67 -68 -69 80 79 -72 73 -74 -75 -76 -77 -78 -79 89 -81 86 84 88 -85 -86 -87 -88 -89 -90 90 -92
leaf_value=1.2072170566553771e-05 5.4616608152476449e-06 2.6765735641820353e-05 5.1039532358027822e-05 -3.4256576146554136e-06 2.8694339321342949e-05 3.4032458141155074e-05 0.00014271253581059034 -1.8397570919941023e-06 2.5972366606330743e-05 0.00013157676220206278 9.4563315153877451e-05 2.9583965425263162e-05 4.3632124658740529e-05 4.1433500629170675e-05 1.9518540005046354e-05 5.3213981719880654e-05 -2.9653344727058846e-06 3.3765292319003489e-05 9.2359662111982088e-06 2.0798426349584418e-06 1.2940809276036211e-05 4.8590937005416439e-06 2.3322043311181493e-05 2.3083857819230097e-05 2.0810926875128643e-05 -2.1620306051186017e-06 4.0299555285526644e-06 2.6698173584670503e-05 7.6787547360355451e-06 4.24158203695697e-06 6.4606387509156085e-06 -3.6468221681645492e-06 8.7214092529848132e-06 1.0381233871108585e-05 1.165375706691788e-06 -7.1461256179885058e-07 4.2143292470281007e-06 2.5728702058338305e-05 7.3856346782356978e-06 2.9224265486534151e-05 4.7698630266321299e-06 2.1039763595763361e-05 1.1844293430555768e-05 -1.1087875292863378e-06 4.878256881056587e-06 7.6134511779711922e-06 8.0172080932328884e-08 4.8797820233195796e-06 -3.6451623977882265e-07 2.0331633930175527e-05 9.760741784702986e-06 1.6439215767176336e-06 -1.7641527175748286e-06 -1.1996294323081052e-06 -2.9906081657255334e-06 2.8364077109290522e-05 2.2229658427246279e-06 1.2355762407054553e-05 2.3201952102350665e-06 -1.9618722760034729e-06 7.442195809643535e-06 6.3596646693688607e-06 -2.5707358519659423e-06 -2.3402807969253429e-06 -4.1132191523225907e-06 -2.4800868151942267e-06 3.1306818196383773e-08 3.0130220958116376e-06 -9.7962965030871738e-08 -3.364890234567405e-06 1.1139859546071082e-06 -3.3528794852136722e-06 -2.8765493978812118e-06 -3.7406008484393877e-06 -2.8465814537569988e-06 -4.1665300753216267e-06 -4.667001310735941e-07 1.0833793585334206e-06 -3.9854564626390737e-06 -2.1119918591365503e-06 -3.6572028533555569e-06 -3.7591663614777543e-06 -2.0016921534031433e-06 -2.4904445431625044e-06 -4.3709548129729251e-06 4.2548874929840478e-07 -2.1566079883900544e-06 -4.1529073932906616e-06 -3.2979201470528012e-06 -4.5662769381041552e-06 -4.6686409352395422e-06
leaf_count=38 27 25 404 129 432 20 28 217 23 21 49 40 28 653 79 41 3027 27 363 37 36 1519 43 35 24 31 94 22 54 20 89 3916 32 148 34 38 155 33 31 35 94 20 115 1446 36 38 871 920 345 23 22 1296 520 1617 178 20 945 101 22 309 27 22 649 3323 2384 70 236 22 21 124 89 4305 311 6306 854 1667 30 20 27 162 20 148 38 26 2788 41 57 96 31 22 116
internal_value=0 0.00534812 0.00635322 -0.00033437 0.00705808 0.00811971 0.0162382 0.000283723 0.00509891 0.00897216 0.00777967 0.0108932 0.00276854 0.00751751 0.00467371 0.00513662 -0.000542098 0.00376137 0.000688557 0.00125528 0.000790642 0.00106712 0.00178797 0.00176038 0.00297779 -7.33072e-05 -0.00023311 0.00163628 0.000542096 0.00264417 0.000125764 -0.000581609 0.00157231 0.00089156 -0.000529357 -0.000184536 -0.000106537 0.00173951 0.00268321 0.00593796 0.00191868 0.00127071 0.00241114 -0.000176252 0.000862939 -4.42771e-05 0.000256034 0.000863889 0.000175821 0.00459763 5.31105e-05 0.000314219 -0.000265226 -0.000152054 -0.000425521 2.9422e-05 0.000431286 0.00232986 0.00060978 -0.000131517 0.0004456 1.98926e-05 -0.00026028 -0.000439707 -0.000664597 -0.000626546 -0.000183128 -0.00019442 -0.000149597 -0.000298275 -0.000163444 -0.000591417 -0.000413036 -0.000597216 -0.000406155 -0.000633667 0.000355201 0.000587157 -0.000642163 -0.000442534 -0.000336952 -0.00070499 -0.000577601 -0.000682619 -0.000723353 0.000181189 -0.000424395 -0.000622658 -0.000430676 -0.0007572 -0.000775387
internal_count=45067 2744 2203 42323 1841 1194 48 10646 647 64 1146 89 362 1057 583 473 31677 238 4989 541 4379 2073 406 384 175 5657 3138 53 2306 43 2519 28525 359 1667 17504 3152 2693 98 110 63 264 114 150 2595 124 610 1927 956 500 50 893 1350 3085 1711 6548 198 1034 125 95 572 65 157 2095 6350 11021 5675 545 92 135 592 306 10956 345 10611 1374 5583 86 56 459 286 98 5346 294 2410 2936 63 77 225 69 165 138
shrinkage=0.006


end of trees

feature importances:
creation_delta=111
claim_created=91
claim_level=38
claim_relation=20
PCA_10=15
PCA_9=14
PCA_5=12
PCA_19=12
PCA_11=10
PCA_2=9
PCA_7=8
PCA_17=8
EMB_392=7
PCA_3=6
PCA_13=6
PCA_18=6
EMB_501=5
PCA_0=5
PCA_15=5
EMB_77=4
EMB_284=4
EMB_345=4
EMB_595=4
EMB_601=4
PCA_8=4
PCA_14=4
PCA_16=4
EMB_127=3
EMB_296=3
PCA_1=3
PCA_4=3
PCA_12=3
EMB_292=1
EMB_351=1
EMB_432=1

parameters:
[boosting: gbdt]
[objective: regression]
[metric: auc,rmse,l2]
[tree_learner: serial]
[device_type: cpu]
[data: ]
[valid: ]
[num_iterations: 100]
[learning_rate: 0.006]
[num_leaves: 100]
[num_threads: -1]
[max_depth: 7]
[min_data_in_leaf: 20]
[min_sum_hessian_in_leaf: 0.001]
[bagging_fraction: 0.7]
[bagging_freq: 10]
[bagging_seed: 3]
[feature_fraction: 0.9]
[feature_fraction_seed: 2]
[early_stopping_round: 0]
[max_delta_step: 0]
[lambda_l1: 0]
[lambda_l2: 0]
[min_gain_to_split: 0]
[drop_rate: 0.1]
[max_drop: 50]
[skip_drop: 0.5]
[xgboost_dart_mode: 0]
[uniform_drop: 0]
[drop_seed: 4]
[top_rate: 0.2]
[other_rate: 0.1]
[min_data_per_group: 100]
[max_cat_threshold: 32]
[cat_l2: 10]
[cat_smooth: 10]
[max_cat_to_onehot: 4]
[top_k: 20]
[monotone_constraints: ]
[feature_contri: ]
[forcedsplits_filename: ]
[refit_decay_rate: 0.9]
[verbosity: -1]
[max_bin: 512]
[min_data_in_bin: 3]
[bin_construct_sample_cnt: 200000]
[histogram_pool_size: -1]
[data_random_seed: 1]
[output_model: LightGBM_model.txt]
[snapshot_freq: -1]
[input_model: ]
[output_result: LightGBM_predict_result.txt]
[initscore_filename: ]
[valid_data_initscores: ]
[pre_partition: 0]
[enable_bundle: 1]
[max_conflict_rate: 0]
[is_enable_sparse: 1]
[sparse_threshold: 0.8]
[use_missing: 1]
[zero_as_missing: 0]
[two_round: 0]
[save_binary: 0]
[enable_load_from_binary_file: 1]
[header: 0]
[label_column: ]
[weight_column: ]
[group_column: ]
[ignore_column: ]
[categorical_feature: ]
[predict_raw_score: 0]
[predict_leaf_index: 0]
[predict_contrib: 0]
[num_iteration_predict: -1]
[pred_early_stop: 0]
[pred_early_stop_freq: 10]
[pred_early_stop_margin: 10]
[convert_model_language: ]
[convert_model: gbdt_prediction.cpp]
[num_class: 1]
[is_unbalance: 0]
[scale_pos_weight: 1]
[sigmoid: 1]
[boost_from_average: 1]
[reg_sqrt: 0]
[alpha: 0.9]
[fair_c: 1]
[poisson_max_delta_step: 0.7]
[tweedie_variance_power: 1.5]
[max_position: 20]
[label_gain: ]
[metric_freq: 1]
[is_provide_training_metric: 0]
[eval_at: ]
[num_machines: 1]
[local_listen_port: 12400]
[time_out: 120]
[machine_list_filename: ]
[machines: ]
[gpu_platform_id: -1]
[gpu_device_id: -1]
[gpu_use_dp: 0]

end of parameters

pandas_categorical:[]
